digraph Tree {
node [shape=box, style="filled, rounded", color="black", fontname=helvetica] ;
edge [fontname=helvetica] ;
0 [label=<ShelveLoc_Bad &le; 0.5<br/>mse = 8.5211<br/>samples = 200<br/>value = 7.3813>, fillcolor="#e5813981"] ;
1 [label=<Price &le; 96.5<br/>mse = 6.8808<br/>samples = 146<br/>value = 8.2069>, fillcolor="#e5813994"] ;
0 -> 1 [labeldistance=2.5, labelangle=45, headlabel="True"] ;
2 [label=<ShelveLoc_Good &le; 0.5<br/>mse = 6.2724<br/>samples = 32<br/>value = 10.6244>, fillcolor="#e58139cc"] ;
1 -> 2 ;
3 [label=<Age &le; 65.0<br/>mse = 4.3724<br/>samples = 21<br/>value = 9.4748>, fillcolor="#e58139b2"] ;
2 -> 3 ;
4 [label=<mse = 2.4625<br/>samples = 17<br/>value = 10.1494>, fillcolor="#e58139c1"] ;
3 -> 4 ;
5 [label=<mse = 2.3336<br/>samples = 4<br/>value = 6.6075>, fillcolor="#e581396f"] ;
3 -> 5 ;
6 [label=<mse = 2.56<br/>samples = 11<br/>value = 12.8191>, fillcolor="#e58139ff"] ;
2 -> 6 ;
7 [label=<Price &le; 131.5<br/>mse = 4.9506<br/>samples = 114<br/>value = 7.5283>, fillcolor="#e5813985"] ;
1 -> 7 ;
8 [label=<ShelveLoc_Medium &le; 0.5<br/>mse = 3.4814<br/>samples = 77<br/>value = 8.2401>, fillcolor="#e5813995"] ;
7 -> 8 ;
9 [label=<mse = 3.0622<br/>samples = 18<br/>value = 9.73>, fillcolor="#e58139b8"] ;
8 -> 9 ;
10 [label=<CompPrice &le; 123.5<br/>mse = 2.7255<br/>samples = 59<br/>value = 7.7856>, fillcolor="#e581398b"] ;
8 -> 10 ;
11 [label=<Income &le; 102.5<br/>mse = 3.2169<br/>samples = 26<br/>value = 6.9658>, fillcolor="#e5813978"] ;
10 -> 11 ;
12 [label=<Price &le; 101.5<br/>mse = 1.1244<br/>samples = 21<br/>value = 6.2952>, fillcolor="#e5813968"] ;
11 -> 12 ;
13 [label=<mse = 1.1224<br/>samples = 9<br/>value = 6.9822>, fillcolor="#e5813978"] ;
12 -> 13 ;
14 [label=<mse = 0.5065<br/>samples = 12<br/>value = 5.78>, fillcolor="#e581395c"] ;
12 -> 14 ;
15 [label=<mse = 2.186<br/>samples = 5<br/>value = 9.782>, fillcolor="#e58139b9"] ;
11 -> 15 ;
16 [label=<Price &le; 109.5<br/>mse = 1.3915<br/>samples = 33<br/>value = 8.4315>, fillcolor="#e581399a"] ;
10 -> 16 ;
17 [label=<mse = 0.6645<br/>samples = 10<br/>value = 9.273>, fillcolor="#e58139ad"] ;
16 -> 17 ;
18 [label=<Income &le; 110.0<br/>mse = 1.2659<br/>samples = 23<br/>value = 8.0657>, fillcolor="#e5813991"] ;
16 -> 18 ;
19 [label=<Advertising &le; 20.5<br/>mse = 0.7819<br/>samples = 22<br/>value = 8.2191>, fillcolor="#e5813995"] ;
18 -> 19 ;
20 [label=<Income &le; 50.5<br/>mse = 0.6114<br/>samples = 21<br/>value = 8.1219>, fillcolor="#e5813992"] ;
19 -> 20 ;
21 [label=<mse = 0.375<br/>samples = 7<br/>value = 7.5929>, fillcolor="#e5813986"] ;
20 -> 21 ;
22 [label=<mse = 0.5197<br/>samples = 14<br/>value = 8.3864>, fillcolor="#e5813999"] ;
20 -> 22 ;
23 [label=<mse = 0.0<br/>samples = 1<br/>value = 10.26>, fillcolor="#e58139c4"] ;
19 -> 23 ;
24 [label=<mse = 0.0<br/>samples = 1<br/>value = 4.69>, fillcolor="#e5813943"] ;
18 -> 24 ;
25 [label=<Age &le; 65.5<br/>mse = 4.7595<br/>samples = 37<br/>value = 6.047>, fillcolor="#e5813963"] ;
7 -> 25 ;
26 [label=<Age &le; 37.0<br/>mse = 3.1855<br/>samples = 30<br/>value = 6.643>, fillcolor="#e5813970"] ;
25 -> 26 ;
27 [label=<mse = 3.1831<br/>samples = 8<br/>value = 8.2162>, fillcolor="#e5813995"] ;
26 -> 27 ;
28 [label=<Population &le; 485.5<br/>mse = 1.959<br/>samples = 22<br/>value = 6.0709>, fillcolor="#e5813963"] ;
26 -> 28 ;
29 [label=<Population &le; 85.5<br/>mse = 1.4239<br/>samples = 21<br/>value = 5.9019>, fillcolor="#e581395f"] ;
28 -> 29 ;
30 [label=<mse = 0.1089<br/>samples = 2<br/>value = 4.45>, fillcolor="#e581393e"] ;
29 -> 30 ;
31 [label=<mse = 1.3171<br/>samples = 19<br/>value = 6.0547>, fillcolor="#e5813963"] ;
29 -> 31 ;
32 [label=<mse = -0.0<br/>samples = 1<br/>value = 9.62>, fillcolor="#e58139b5"] ;
28 -> 32 ;
33 [label=<mse = 3.4594<br/>samples = 7<br/>value = 3.4929>, fillcolor="#e5813928"] ;
25 -> 33 ;
34 [label=<Price &le; 125.0<br/>mse = 6.1302<br/>samples = 54<br/>value = 5.1491>, fillcolor="#e581394e"] ;
0 -> 34 [labeldistance=2.5, labelangle=-45, headlabel="False"] ;
35 [label=<Age &le; 42.5<br/>mse = 5.9604<br/>samples = 36<br/>value = 5.9628>, fillcolor="#e5813961"] ;
34 -> 35 ;
36 [label=<mse = 2.9716<br/>samples = 9<br/>value = 8.5311>, fillcolor="#e581399c"] ;
35 -> 36 ;
37 [label=<CompPrice &le; 99.5<br/>mse = 4.0249<br/>samples = 27<br/>value = 5.1067>, fillcolor="#e581394d"] ;
35 -> 37 ;
38 [label=<mse = 0.808<br/>samples = 3<br/>value = 1.7833>, fillcolor="#e5813900"] ;
37 -> 38 ;
39 [label=<Price &le; 80.0<br/>mse = 2.8739<br/>samples = 24<br/>value = 5.5221>, fillcolor="#e5813956"] ;
37 -> 39 ;
40 [label=<mse = 0.0042<br/>samples = 2<br/>value = 8.075>, fillcolor="#e5813991"] ;
39 -> 40 ;
41 [label=<Education &le; 17.5<br/>mse = 2.4884<br/>samples = 22<br/>value = 5.29>, fillcolor="#e5813951"] ;
39 -> 41 ;
42 [label=<Education &le; 10.5<br/>mse = 2.1246<br/>samples = 20<br/>value = 5.512>, fillcolor="#e5813956"] ;
41 -> 42 ;
43 [label=<mse = 0.0<br/>samples = 1<br/>value = 8.19>, fillcolor="#e5813994"] ;
42 -> 43 ;
44 [label=<mse = 1.8391<br/>samples = 19<br/>value = 5.3711>, fillcolor="#e5813953"] ;
42 -> 44 ;
45 [label=<mse = 0.7056<br/>samples = 2<br/>value = 3.07>, fillcolor="#e581391e"] ;
41 -> 45 ;
46 [label=<mse = 2.4973<br/>samples = 18<br/>value = 3.5217>, fillcolor="#e5813928"] ;
34 -> 46 ;
}