digraph Tree {
node [shape=box, style="filled, rounded", color="black", fontname=helvetica] ;
edge [fontname=helvetica] ;
0 [label=<lstat &le; 7.81<br/>mse = 92.491<br/>samples = 253<br/>value = 23.049>, fillcolor="#e5813961"] ;
1 [label=<rm &le; 7.435<br/>mse = 84.3447<br/>samples = 86<br/>value = 32.4919>, fillcolor="#e5813999"] ;
0 -> 1 [labeldistance=2.5, labelangle=45, headlabel="True"] ;
2 [label=<dis &le; 1.4849<br/>mse = 41.9032<br/>samples = 68<br/>value = 28.9779>, fillcolor="#e5813984"] ;
1 -> 2 ;
3 [label=<mse = 0.0<br/>samples = 3<br/>value = 50.0>, fillcolor="#e58139ff"] ;
2 -> 3 ;
4 [label=<rm &le; 6.556<br/>mse = 22.4992<br/>samples = 65<br/>value = 28.0077>, fillcolor="#e581397e"] ;
2 -> 4 ;
5 [label=<indus &le; 12.365<br/>mse = 2.6185<br/>samples = 25<br/>value = 23.748>, fillcolor="#e5813966"] ;
4 -> 5 ;
6 [label=<ptratio &le; 19.65<br/>mse = 1.6502<br/>samples = 23<br/>value = 23.4391>, fillcolor="#e5813964"] ;
5 -> 6 ;
7 [label=<mse = 0.8593<br/>samples = 16<br/>value = 24.0062>, fillcolor="#e5813967"] ;
6 -> 7 ;
8 [label=<mse = 1.0424<br/>samples = 7<br/>value = 22.1429>, fillcolor="#e581395c"] ;
6 -> 8 ;
9 [label=<mse = 0.04<br/>samples = 2<br/>value = 27.3>, fillcolor="#e581397a"] ;
5 -> 9 ;
10 [label=<rm &le; 7.1045<br/>mse = 16.4961<br/>samples = 40<br/>value = 30.67>, fillcolor="#e581398e"] ;
4 -> 10 ;
11 [label=<age &le; 51.1<br/>mse = 12.9053<br/>samples = 30<br/>value = 29.3067>, fillcolor="#e5813986"] ;
10 -> 11 ;
12 [label=<mse = 7.3284<br/>samples = 18<br/>value = 30.9778>, fillcolor="#e5813990"] ;
11 -> 12 ;
13 [label=<mse = 10.7983<br/>samples = 12<br/>value = 26.8>, fillcolor="#e5813977"] ;
11 -> 13 ;
14 [label=<mse = 4.9644<br/>samples = 10<br/>value = 34.76>, fillcolor="#e58139a6"] ;
10 -> 14 ;
15 [label=<mse = 21.8122<br/>samples = 18<br/>value = 45.7667>, fillcolor="#e58139e6"] ;
1 -> 15 ;
16 [label=<lstat &le; 15.0<br/>mse = 27.1208<br/>samples = 167<br/>value = 18.1862>, fillcolor="#e5813945"] ;
0 -> 16 [labeldistance=2.5, labelangle=-45, headlabel="False"] ;
17 [label=<rm &le; 6.53<br/>mse = 12.2547<br/>samples = 87<br/>value = 21.5655>, fillcolor="#e5813959"] ;
16 -> 17 ;
18 [label=<ptratio &le; 18.65<br/>mse = 6.2476<br/>samples = 74<br/>value = 20.7838>, fillcolor="#e5813954"] ;
17 -> 18 ;
19 [label=<tax &le; 208.0<br/>mse = 6.7451<br/>samples = 31<br/>value = 21.8548>, fillcolor="#e581395a"] ;
18 -> 19 ;
20 [label=<mse = 2.56<br/>samples = 2<br/>value = 28.0>, fillcolor="#e581397e"] ;
19 -> 20 ;
21 [label=<rm &le; 5.208<br/>mse = 4.2497<br/>samples = 29<br/>value = 21.431>, fillcolor="#e5813958"] ;
19 -> 21 ;
22 [label=<mse = 0.0<br/>samples = 1<br/>value = 15.3>, fillcolor="#e5813934"] ;
21 -> 22 ;
23 [label=<tax &le; 416.5<br/>mse = 3.0111<br/>samples = 28<br/>value = 21.65>, fillcolor="#e5813959"] ;
21 -> 23 ;
24 [label=<zn &le; 6.25<br/>mse = 2.6087<br/>samples = 25<br/>value = 21.936>, fillcolor="#e581395b"] ;
23 -> 24 ;
25 [label=<mse = 1.8931<br/>samples = 14<br/>value = 22.6786>, fillcolor="#e581395f"] ;
24 -> 25 ;
26 [label=<mse = 1.9245<br/>samples = 11<br/>value = 20.9909>, fillcolor="#e5813955"] ;
24 -> 26 ;
27 [label=<mse = 0.0022<br/>samples = 3<br/>value = 19.2667>, fillcolor="#e581394b"] ;
23 -> 27 ;
28 [label=<age &le; 99.45<br/>mse = 4.4657<br/>samples = 43<br/>value = 20.0116>, fillcolor="#e5813950"] ;
18 -> 28 ;
29 [label=<indus &le; 5.16<br/>mse = 3.8315<br/>samples = 42<br/>value = 20.1429>, fillcolor="#e5813950"] ;
28 -> 29 ;
30 [label=<mse = 0.8422<br/>samples = 3<br/>value = 17.2333>, fillcolor="#e581393f"] ;
29 -> 30 ;
31 [label=<age &le; 57.0<br/>mse = 3.3602<br/>samples = 39<br/>value = 20.3667>, fillcolor="#e5813952"] ;
29 -> 31 ;
32 [label=<mse = 2.425<br/>samples = 12<br/>value = 21.6>, fillcolor="#e5813959"] ;
31 -> 32 ;
33 [label=<indus &le; 13.895<br/>mse = 2.7993<br/>samples = 27<br/>value = 19.8185>, fillcolor="#e581394f"] ;
31 -> 33 ;
34 [label=<mse = 1.1804<br/>samples = 10<br/>value = 18.74>, fillcolor="#e5813948"] ;
33 -> 34 ;
35 [label=<mse = 2.6648<br/>samples = 17<br/>value = 20.4529>, fillcolor="#e5813952"] ;
33 -> 35 ;
36 [label=<mse = 0.0<br/>samples = 1<br/>value = 14.5>, fillcolor="#e581392f"] ;
28 -> 36 ;
37 [label=<mse = 23.169<br/>samples = 13<br/>value = 26.0154>, fillcolor="#e5813973"] ;
17 -> 37 ;
38 [label=<dis &le; 1.9181<br/>mse = 17.3635<br/>samples = 80<br/>value = 14.5112>, fillcolor="#e5813930"] ;
16 -> 38 ;
39 [label=<tax &le; 551.5<br/>mse = 13.1881<br/>samples = 36<br/>value = 11.6722>, fillcolor="#e581391f"] ;
38 -> 39 ;
40 [label=<mse = 3.1291<br/>samples = 9<br/>value = 15.7556>, fillcolor="#e5813937"] ;
39 -> 40 ;
41 [label=<lstat &le; 19.645<br/>mse = 9.1306<br/>samples = 27<br/>value = 10.3111>, fillcolor="#e5813917"] ;
39 -> 41 ;
42 [label=<mse = 4.756<br/>samples = 5<br/>value = 13.8>, fillcolor="#e581392b"] ;
41 -> 42 ;
43 [label=<crim &le; 30.2015<br/>mse = 6.7297<br/>samples = 22<br/>value = 9.5182>, fillcolor="#e5813912"] ;
41 -> 43 ;
44 [label=<mse = 5.0592<br/>samples = 18<br/>value = 10.2167>, fillcolor="#e5813916"] ;
43 -> 44 ;
45 [label=<mse = 2.1719<br/>samples = 4<br/>value = 6.375>, fillcolor="#e5813900"] ;
43 -> 45 ;
46 [label=<crim &le; 0.593<br/>mse = 8.7895<br/>samples = 44<br/>value = 16.8341>, fillcolor="#e581393d"] ;
38 -> 46 ;
47 [label=<mse = 5.2686<br/>samples = 16<br/>value = 19.3625>, fillcolor="#e581394c"] ;
46 -> 47 ;
48 [label=<black &le; 318.835<br/>mse = 5.061<br/>samples = 28<br/>value = 15.3893>, fillcolor="#e5813935"] ;
46 -> 48 ;
49 [label=<mse = 3.2685<br/>samples = 12<br/>value = 14.275>, fillcolor="#e581392e"] ;
48 -> 49 ;
50 [label=<mse = 4.7756<br/>samples = 16<br/>value = 16.225>, fillcolor="#e581393a"] ;
48 -> 50 ;
}